{
  "n_estimators": 100,
  "feature_names": [
    "url_length",
    "num_dots", 
    "num_special_chars",
    "num_forms",
    "num_inputs",
    "num_links",
    "has_password_field"
  ],
  "trees": [
    {
      "tree_structure": {
        "max_depth": 5,
        "node_count": 11,
        "nodes": [
          [1, 10, 2, 2.5, 0.498046875, 107, 160.0, 1],
          [2, 9, 1, 2.5, 0.23781212841854937, 58, 87.0, 1],
          [3, 4, 6, 0.5, 0.3240448147084172, 38, 59.0, 1],
          [-1, -1, -2, -2.0, 1.0, 22, 35.0, 0],
          [5, 10, 2, 4.0, 0.5, 16, 24.0, 1],
          [6, 7, 3, 1.5, 0.14201183431952658, 9, 13.0, 1],
          [-1, -1, -2, -2.0, 1.0, 6, 9.0, 0],
          [8, 9, 0, 45.0, 0.875, 3, 4.0, 1],
          [-1, -1, -2, -2.0, 1.0, 2, 3.0, 0],
          [-1, -1, -2, -2.0, 1.0, 1, 1.0, 0],
          [-1, -1, -2, -2.0, 1.0, 7, 11.0, 0]
        ],
        "values": [
          [[0.2, 0.8]],
          [[0.1, 0.9]],
          [[0.1, 0.9]],
          [[0.0, 1.0]],
          [[0.2, 0.8]],
          [[0.1, 0.9]],
          [[0.0, 1.0]],
          [[0.1, 0.9]],
          [[0.0, 1.0]],
          [[0.0, 1.0]],
          [[0.0, 1.0]]
        ],
        "n_features": 7,
        "n_classes": 2,
        "classes": [0.0, 1.0]
      }
    }
  ]
}